<?xml version="1.0"?>
<opencv_storage>
<cascade>
  <stageType>BOOST</stageType>
  <featureType>HAAR</featureType>
  <height>22</height>
  <width>15</width>
  <stageParams>
    <boostType>GAB</boostType>
    <minHitRate>9.9900001287460327e-01</minHitRate>
    <maxFalseAlarm>5.0000000000000000e-01</maxFalseAlarm>
    <weightTrimRate>9.4999999999999996e-01</weightTrimRate>
    <maxDepth>1</maxDepth>
    <maxWeakCount>100</maxWeakCount></stageParams>
  <featureParams>
    <maxCatCount>0</maxCatCount>
    <featSize>1</featSize>
    <mode>BASIC</mode></featureParams>
  <stageNum>12</stageNum>
  <stages>
    <!-- stage 0 -->
    <_>
      <maxWeakCount>3</maxWeakCount>
      <stageThreshold>-8.5468089580535889e-01</stageThreshold>
      <weakClassifiers>
        <_>
          <internalNodes>
            0 -1 35 -2.4789184331893921e-01</internalNodes>
          <leafValues>
            -9.8441559076309204e-01 6.4115226268768311e-01</leafValues></_>
        <_>
          <internalNodes>
            0 -1 63 -2.5870837271213531e-02</internalNodes>
          <leafValues>
            7.5627422332763672e-01 -6.8764925003051758e-01</leafValues></_>
        <_>
          <internalNodes>
            0 -1 2 1.5387825667858124e-02</internalNodes>
          <leafValues>
            -5.9345430135726929e-01 8.1738394498825073e-01</leafValues></_></weakClassifiers></_>
    <!-- stage 1 -->
    <_>
      <maxWeakCount>7</maxWeakCount>
      <stageThreshold>-1.4977996349334717e+00</stageThreshold>
      <weakClassifiers>
        <_>
          <internalNodes>
            0 -1 61 -6.1000049114227295e-02</internalNodes>
          <leafValues>
            8.7022900581359863e-01 -3.4889435768127441e-01</leafValues></_>
        <_>
          <internalNodes>
            0 -1 7 3.9190642535686493e-02</internalNodes>
          <leafValues>
            -4.2297393083572388e-01 7.9813826084136963e-01</leafValues></_>
        <_>
          <internalNodes>
            0 -1 107 -2.7304328978061676e-03</internalNodes>
          <leafValues>
            -7.7138042449951172e-01 4.4884419441223145e-01</leafValues></_>
        <_>
          <internalNodes>
            0 -1 100 1.8455646932125092e-02</internalNodes>
          <leafValues>
            3.1301015615463257e-01 -9.6484732627868652e-01</leafValues></_>
        <_>
          <internalNodes>
            0 -1 30 3.5004512028535828e-05</internalNodes>
          <leafValues>
            -7.0947229862213135e-01 4.4085127115249634e-01</leafValues></_>
        <_>
          <internalNodes>
            0 -1 15 6.3007950782775879e-02</internalNodes>
          <leafValues>
            -3.9291301369667053e-01 8.1483846902847290e-01</leafValues></_>
        <_>
          <internalNodes>
            0 -1 56 -1.5807600319385529e-01</internalNodes>
          <leafValues>
            8.7485587596893311e-01 -3.1549936532974243e-01</leafValues></_></weakClassifiers></_>
    <!-- stage 2 -->
    <_>
      <maxWeakCount>8</maxWeakCount>
      <stageThreshold>-6.6779923439025879e-01</stageThreshold>
      <weakClassifiers>
        <_>
          <internalNodes>
            0 -1 47 -1.2539590895175934e-01</internalNodes>
          <leafValues>
            -9.3485343456268311e-01 5.3132247924804688e-01</leafValues></_>
        <_>
          <internalNodes>
            0 -1 18 6.3747346401214600e-02</internalNodes>
          <leafValues>
            -3.6792579293251038e-01 9.1296094655990601e-01</leafValues></_>
        <_>
          <internalNodes>
            0 -1 33 5.5105894804000854e-02</internalNodes>
          <leafValues>
            -2.7878394722938538e-01 8.2238537073135376e-01</leafValues></_>
        <_>
          <internalNodes>
            0 -1 55 -1.0956823825836182e-01</internalNodes>
          <leafValues>
            7.8077286481857300e-01 -3.9257407188415527e-01</leafValues></_>
        <_>
          <internalNodes>
            0 -1 3 2.1556502208113670e-02</internalNodes>
          <leafValues>
            -4.0128794312477112e-01 6.5184152126312256e-01</leafValues></_>
        <_>
          <internalNodes>
            0 -1 49 5.2165366709232330e-02</internalNodes>
          <leafValues>
            -2.6374292373657227e-01 8.5819035768508911e-01</leafValues></_>
        <_>
          <internalNodes>
            0 -1 14 -3.7709349393844604e-01</internalNodes>
          <leafValues>
            9.5422112941741943e-01 -1.6036157310009003e-01</leafValues></_>
        <_>
          <internalNodes>
            0 -1 79 2.2438116371631622e-02</internalNodes>
          <leafValues>
            -3.8757491111755371e-01 6.6783684492111206e-01</leafValues></_></weakClassifiers></_>
    <!-- stage 3 -->
    <_>
      <maxWeakCount>7</maxWeakCount>
      <stageThreshold>-7.8312802314758301e-01</stageThreshold>
      <weakClassifiers>
        <_>
          <internalNodes>
            0 -1 40 1.0118113458156586e-01</internalNodes>
          <leafValues>
            4.6617099642753601e-01 -8.9019608497619629e-01</leafValues></_>
        <_>
          <internalNodes>
            0 -1 50 -2.1302613615989685e-01</internalNodes>
          <leafValues>
            8.6812388896942139e-01 -3.4156346321105957e-01</leafValues></_>
        <_>
          <internalNodes>
            0 -1 6 1.5017637982964516e-02</internalNodes>
          <leafValues>
            -3.8718840479850769e-01 6.4419281482696533e-01</leafValues></_>
        <_>
          <internalNodes>
            0 -1 1 8.5584416985511780e-02</internalNodes>
          <leafValues>
            -4.4320207834243774e-01 4.9118533730506897e-01</leafValues></_>
        <_>
          <internalNodes>
            0 -1 104 3.8352794945240021e-03</internalNodes>
          <leafValues>
            3.3905836939811707e-01 -8.2402044534683228e-01</leafValues></_>
        <_>
          <internalNodes>
            0 -1 98 -1.1710812395904213e-04</internalNodes>
          <leafValues>
            3.2790330052375793e-01 -7.2789037227630615e-01</leafValues></_>
        <_>
          <internalNodes>
            0 -1 122 3.7661649286746979e-02</internalNodes>
          <leafValues>
            -3.2232710719108582e-01 7.7221906185150146e-01</leafValues></_></weakClassifiers></_>
    <!-- stage 4 -->
    <_>
      <maxWeakCount>8</maxWeakCount>
      <stageThreshold>-9.6661412715911865e-01</stageThreshold>
      <weakClassifiers>
        <_>
          <internalNodes>
            0 -1 99 5.6606545113027096e-03</internalNodes>
          <leafValues>
            4.7740963101387024e-01 -8.6029410362243652e-01</leafValues></_>
        <_>
          <internalNodes>
            0 -1 129 -4.5035448856651783e-03</internalNodes>
          <leafValues>
            3.8859203457832336e-01 -5.1804232597351074e-01</leafValues></_>
        <_>
          <internalNodes>
            0 -1 102 -7.4804136529564857e-03</internalNodes>
          <leafValues>
            -8.3692204952239990e-01 2.7238169312477112e-01</leafValues></_>
        <_>
          <internalNodes>
            0 -1 29 -6.2933488516137004e-04</internalNodes>
          <leafValues>
            -6.9623529911041260e-01 2.5440356135368347e-01</leafValues></_>
        <_>
          <internalNodes>
            0 -1 58 8.2154795527458191e-03</internalNodes>
          <leafValues>
            -4.6724733710289001e-01 4.6741330623626709e-01</leafValues></_>
        <_>
          <internalNodes>
            0 -1 38 -4.6028405427932739e-02</internalNodes>
          <leafValues>
            -8.9088565111160278e-01 2.2769005596637726e-01</leafValues></_>
        <_>
          <internalNodes>
            0 -1 86 -1.4452059753239155e-02</internalNodes>
          <leafValues>
            -9.0743356943130493e-01 1.5482969582080841e-01</leafValues></_>
        <_>
          <internalNodes>
            0 -1 22 -1.6384623944759369e-02</internalNodes>
          <leafValues>
            -8.2390242815017700e-01 1.7233403027057648e-01</leafValues></_></weakClassifiers></_>
    <!-- stage 5 -->
    <_>
      <maxWeakCount>12</maxWeakCount>
      <stageThreshold>-1.0833013057708740e+00</stageThreshold>
      <weakClassifiers>
        <_>
          <internalNodes>
            0 -1 81 3.5738185979425907e-03</internalNodes>
          <leafValues>
            4.5083206892013550e-01 -7.0503598451614380e-01</leafValues></_>
        <_>
          <internalNodes>
            0 -1 21 2.2862147539854050e-02</internalNodes>
          <leafValues>
            -3.3368965983390808e-01 5.8159339427947998e-01</leafValues></_>
        <_>
          <internalNodes>
            0 -1 121 4.0730390697717667e-02</internalNodes>
          <leafValues>
            -2.7196407318115234e-01 5.9555202722549438e-01</leafValues></_>
        <_>
          <internalNodes>
            0 -1 90 2.3629531264305115e-02</internalNodes>
          <leafValues>
            -3.7752726674079895e-01 4.4621175527572632e-01</leafValues></_>
        <_>
          <internalNodes>
            0 -1 74 -6.9142361171543598e-03</internalNodes>
          <leafValues>
            3.6446049809455872e-01 -4.3969216942787170e-01</leafValues></_>
        <_>
          <internalNodes>
            0 -1 62 -2.9125135391950607e-02</internalNodes>
          <leafValues>
            -8.1566518545150757e-01 2.2698062658309937e-01</leafValues></_>
        <_>
          <internalNodes>
            0 -1 68 -1.9940197467803955e-02</internalNodes>
          <leafValues>
            -7.6836258172988892e-01 1.6731494665145874e-01</leafValues></_>
        <_>
          <internalNodes>
            0 -1 83 3.3882728312164545e-03</internalNodes>
          <leafValues>
            1.5601505339145660e-01 -7.0929485559463501e-01</leafValues></_>
        <_>
          <internalNodes>
            0 -1 72 7.8296440187841654e-04</internalNodes>
          <leafValues>
            1.6772413253784180e-01 -7.2191601991653442e-01</leafValues></_>
        <_>
          <internalNodes>
            0 -1 123 -7.3869846761226654e-02</internalNodes>
          <leafValues>
            6.7120093107223511e-01 -2.3675659298896790e-01</leafValues></_>
        <_>
          <internalNodes>
            0 -1 116 2.7703691739588976e-03</internalNodes>
          <leafValues>
            2.2447313368320465e-01 -7.1644353866577148e-01</leafValues></_>
        <_>
          <internalNodes>
            0 -1 127 -2.0488835871219635e-03</internalNodes>
          <leafValues>
            6.7126148939132690e-01 -2.2426530718803406e-01</leafValues></_></weakClassifiers></_>
    <!-- stage 6 -->
    <_>
      <maxWeakCount>12</maxWeakCount>
      <stageThreshold>-1.0304834842681885e+00</stageThreshold>
      <weakClassifiers>
        <_>
          <internalNodes>
            0 -1 111 1.9025694200536236e-05</internalNodes>
          <leafValues>
            -4.7849461436271667e-01 4.7068405151367188e-01</leafValues></_>
        <_>
          <internalNodes>
            0 -1 89 -7.8402081271633506e-04</internalNodes>
          <leafValues>
            -5.4242950677871704e-01 3.1467816233634949e-01</leafValues></_>
        <_>
          <internalNodes>
            0 -1 43 -1.5306331217288971e-02</internalNodes>
          <leafValues>
            4.9158504605293274e-01 -3.7838563323020935e-01</leafValues></_>
        <_>
          <internalNodes>
            0 -1 96 1.6912125051021576e-02</internalNodes>
          <leafValues>
            -3.3171981573104858e-01 5.6561076641082764e-01</leafValues></_>
        <_>
          <internalNodes>
            0 -1 28 -4.5272643910720944e-04</internalNodes>
          <leafValues>
            -6.8739897012710571e-01 2.1072484552860260e-01</leafValues></_>
        <_>
          <internalNodes>
            0 -1 76 -2.0197652280330658e-02</internalNodes>
          <leafValues>
            -8.4260499477386475e-01 1.5505512058734894e-01</leafValues></_>
        <_>
          <internalNodes>
            0 -1 59 2.4872617796063423e-03</internalNodes>
          <leafValues>
            -5.0206702947616577e-01 3.0254882574081421e-01</leafValues></_>
        <_>
          <internalNodes>
            0 -1 8 8.7264418601989746e-02</internalNodes>
          <leafValues>
            1.2236596643924713e-01 -9.5056504011154175e-01</leafValues></_>
        <_>
          <internalNodes>
            0 -1 60 -1.6419485211372375e-02</internalNodes>
          <leafValues>
            3.7911483645439148e-01 -3.9397174119949341e-01</leafValues></_>
        <_>
          <internalNodes>
            0 -1 9 5.1654901355504990e-02</internalNodes>
          <leafValues>
            -2.8453356027603149e-01 5.4135668277740479e-01</leafValues></_>
        <_>
          <internalNodes>
            0 -1 91 2.9398356564342976e-03</internalNodes>
          <leafValues>
            -3.5242921113967896e-01 4.2558011412620544e-01</leafValues></_>
        <_>
          <internalNodes>
            0 -1 118 1.0442251805216074e-03</internalNodes>
          <leafValues>
            2.0871545374393463e-01 -6.8630713224411011e-01</leafValues></_></weakClassifiers></_>
    <!-- stage 7 -->
    <_>
      <maxWeakCount>14</maxWeakCount>
      <stageThreshold>-1.1448357105255127e+00</stageThreshold>
      <weakClassifiers>
        <_>
          <internalNodes>
            0 -1 77 -5.9578494983725250e-05</internalNodes>
          <leafValues>
            5.1239669322967529e-01 -5.6410259008407593e-01</leafValues></_>
        <_>
          <internalNodes>
            0 -1 12 -1.2399674952030182e-01</internalNodes>
          <leafValues>
            -8.3530455827713013e-01 2.4055336415767670e-01</leafValues></_>
        <_>
          <internalNodes>
            0 -1 45 -1.6639649868011475e-02</internalNodes>
          <leafValues>
            5.4965829849243164e-01 -3.0766534805297852e-01</leafValues></_>
        <_>
          <internalNodes>
            0 -1 130 1.7184249591082335e-03</internalNodes>
          <leafValues>
            -2.6185140013694763e-01 5.5552113056182861e-01</leafValues></_>
        <_>
          <internalNodes>
            0 -1 27 -1.9353903830051422e-02</internalNodes>
          <leafValues>
            4.9729990959167480e-01 -3.5399785637855530e-01</leafValues></_>
        <_>
          <internalNodes>
            0 -1 32 1.5310848539229482e-04</internalNodes>
          <leafValues>
            -5.5408048629760742e-01 3.0427220463752747e-01</leafValues></_>
        <_>
          <internalNodes>
            0 -1 110 -1.5335911884903908e-03</internalNodes>
          <leafValues>
            -7.5261574983596802e-01 1.8712559342384338e-01</leafValues></_>
        <_>
          <internalNodes>
            0 -1 82 -6.9782389327883720e-03</internalNodes>
          <leafValues>
            6.2592375278472900e-01 -2.5352320075035095e-01</leafValues></_>
        <_>
          <internalNodes>
            0 -1 66 1.5721943974494934e-01</internalNodes>
          <leafValues>
            1.8100234866142273e-01 -9.7857505083084106e-01</leafValues></_>
        <_>
          <internalNodes>
            0 -1 134 1.2937494553625584e-02</internalNodes>
          <leafValues>
            -2.4205683171749115e-01 7.1979933977127075e-01</leafValues></_>
        <_>
          <internalNodes>
            0 -1 126 -2.2663347423076630e-02</internalNodes>
          <leafValues>
            7.4336886405944824e-01 -1.4806589484214783e-01</leafValues></_>
        <_>
          <internalNodes>
            0 -1 108 -1.2175055220723152e-02</internalNodes>
          <leafValues>
            -8.6954116821289062e-01 1.5526749193668365e-01</leafValues></_>
        <_>
          <internalNodes>
            0 -1 34 1.1519266292452812e-02</internalNodes>
          <leafValues>
            -3.5841244459152222e-01 3.9117982983589172e-01</leafValues></_>
        <_>
          <internalNodes>
            0 -1 125 5.5402526631951332e-03</internalNodes>
          <leafValues>
            -3.0548840761184692e-01 4.3216896057128906e-01</leafValues></_></weakClassifiers></_>
    <!-- stage 8 -->
    <_>
      <maxWeakCount>17</maxWeakCount>
      <stageThreshold>-1.4263592958450317e+00</stageThreshold>
      <weakClassifiers>
        <_>
          <internalNodes>
            0 -1 88 2.5588355129002593e-05</internalNodes>
          <leafValues>
            -4.0182647109031677e-01 4.9569708108901978e-01</leafValues></_>
        <_>
          <internalNodes>
            0 -1 48 -1.9092421978712082e-02</internalNodes>
          <leafValues>
            -7.6035374402999878e-01 2.3255006968975067e-01</leafValues></_>
        <_>
          <internalNodes>
            0 -1 13 5.0956100225448608e-02</internalNodes>
          <leafValues>
            -2.8217062354087830e-01 4.7617280483245850e-01</leafValues></_>
        <_>
          <internalNodes>
            0 -1 115 -7.0935613475739956e-03</internalNodes>
          <leafValues>
            3.1170302629470825e-01 -4.3042233586311340e-01</leafValues></_>
        <_>
          <internalNodes>
            0 -1 51 1.8277272582054138e-02</internalNodes>
          <leafValues>
            1.2853102385997772e-01 -8.1690162420272827e-01</leafValues></_>
        <_>
          <internalNodes>
            0 -1 5 9.5386598259210587e-03</internalNodes>
          <leafValues>
            -3.8968765735626221e-01 3.2878407835960388e-01</leafValues></_>
        <_>
          <internalNodes>
            0 -1 54 2.1165616810321808e-02</internalNodes>
          <leafValues>
            8.0467686057090759e-02 -9.6427845954895020e-01</leafValues></_>
        <_>
          <internalNodes>
            0 -1 41 -2.6023577447631396e-05</internalNodes>
          <leafValues>
            2.9964900016784668e-01 -3.7050381302833557e-01</leafValues></_>
        <_>
          <internalNodes>
            0 -1 20 6.8018902093172073e-03</internalNodes>
          <leafValues>
            -2.0650745928287506e-01 5.6378608942031860e-01</leafValues></_>
        <_>
          <internalNodes>
            0 -1 71 -1.4985330402851105e-02</internalNodes>
          <leafValues>
            -9.0847468376159668e-01 1.2025420367717743e-01</leafValues></_>
        <_>
          <internalNodes>
            0 -1 4 2.7266103029251099e-01</internalNodes>
          <leafValues>
            1.1951744556427002e-01 -7.8827130794525146e-01</leafValues></_>
        <_>
          <internalNodes>
            0 -1 17 2.7151116228196770e-05</internalNodes>
          <leafValues>
            -3.6640292406082153e-01 2.8857758641242981e-01</leafValues></_>
        <_>
          <internalNodes>
            0 -1 25 5.5602155625820160e-02</internalNodes>
          <leafValues>
            -1.8746779859066010e-01 6.3368821144104004e-01</leafValues></_>
        <_>
          <internalNodes>
            0 -1 132 -1.7809472046792507e-04</internalNodes>
          <leafValues>
            -5.1054459810256958e-01 2.7922311425209045e-01</leafValues></_>
        <_>
          <internalNodes>
            0 -1 67 -2.4929200662882067e-05</internalNodes>
          <leafValues>
            3.1066966056823730e-01 -4.2097625136375427e-01</leafValues></_>
        <_>
          <internalNodes>
            0 -1 0 -6.4279814250767231e-04</internalNodes>
          <leafValues>
            -5.9608614444732666e-01 2.0441989600658417e-01</leafValues></_>
        <_>
          <internalNodes>
            0 -1 92 -3.2908990979194641e-03</internalNodes>
          <leafValues>
            6.7829483747482300e-01 -2.0909568667411804e-01</leafValues></_></weakClassifiers></_>
    <!-- stage 9 -->
    <_>
      <maxWeakCount>17</maxWeakCount>
      <stageThreshold>-1.3539196252822876e+00</stageThreshold>
      <weakClassifiers>
        <_>
          <internalNodes>
            0 -1 85 -2.9236203990876675e-03</internalNodes>
          <leafValues>
            -4.2234331369400024e-01 4.5012164115905762e-01</leafValues></_>
        <_>
          <internalNodes>
            0 -1 26 4.1927546262741089e-02</internalNodes>
          <leafValues>
            -2.4750772118568420e-01 5.3960686922073364e-01</leafValues></_>
        <_>
          <internalNodes>
            0 -1 114 1.6884554177522659e-02</internalNodes>
          <leafValues>
            -2.8289046883583069e-01 5.5100405216217041e-01</leafValues></_>
        <_>
          <internalNodes>
            0 -1 70 -3.2483079849043861e-05</internalNodes>
          <leafValues>
            1.9324950873851776e-01 -6.8363857269287109e-01</leafValues></_>
        <_>
          <internalNodes>
            0 -1 44 -1.1188428848981857e-02</internalNodes>
          <leafValues>
            9.1233861446380615e-01 -1.3069193065166473e-01</leafValues></_>
        <_>
          <internalNodes>
            0 -1 106 8.4401917411014438e-04</internalNodes>
          <leafValues>
            1.7800173163414001e-01 -6.5981429815292358e-01</leafValues></_>
        <_>
          <internalNodes>
            0 -1 42 -4.3646253645420074e-02</internalNodes>
          <leafValues>
            -8.1005984544754028e-01 1.5045282244682312e-01</leafValues></_>
        <_>
          <internalNodes>
            0 -1 11 1.7011675983667374e-02</internalNodes>
          <leafValues>
            -1.5649387240409851e-01 7.7914208173751831e-01</leafValues></_>
        <_>
          <internalNodes>
            0 -1 131 -4.0595149621367455e-03</internalNodes>
          <leafValues>
            7.3063647747039795e-01 -1.5903204679489136e-01</leafValues></_>
        <_>
          <internalNodes>
            0 -1 16 -2.2280734032392502e-02</internalNodes>
          <leafValues>
            -8.4212934970855713e-01 1.7597058415412903e-01</leafValues></_>
        <_>
          <internalNodes>
            0 -1 124 -8.3441548049449921e-03</internalNodes>
          <leafValues>
            6.0665404796600342e-01 -2.5401574373245239e-01</leafValues></_>
        <_>
          <internalNodes>
            0 -1 67 -1.4349690172821283e-04</internalNodes>
          <leafValues>
            3.6173617839813232e-01 -4.1830483078956604e-01</leafValues></_>
        <_>
          <internalNodes>
            0 -1 112 2.2125402465462685e-03</internalNodes>
          <leafValues>
            -2.3701681196689606e-01 5.0983393192291260e-01</leafValues></_>
        <_>
          <internalNodes>
            0 -1 10 2.6618286967277527e-02</internalNodes>
          <leafValues>
            -2.8063541650772095e-01 4.7248035669326782e-01</leafValues></_>
        <_>
          <internalNodes>
            0 -1 97 -9.6651422791182995e-04</internalNodes>
          <leafValues>
            2.5252491235733032e-01 -4.8642480373382568e-01</leafValues></_>
        <_>
          <internalNodes>
            0 -1 75 -4.7438383102416992e-02</internalNodes>
          <leafValues>
            -9.0709489583969116e-01 1.5301643311977386e-01</leafValues></_>
        <_>
          <internalNodes>
            0 -1 101 4.5829070731997490e-03</internalNodes>
          <leafValues>
            1.2205354869365692e-01 -7.4762946367263794e-01</leafValues></_></weakClassifiers></_>
    <!-- stage 10 -->
    <_>
      <maxWeakCount>16</maxWeakCount>
      <stageThreshold>-1.0738824605941772e+00</stageThreshold>
      <weakClassifiers>
        <_>
          <internalNodes>
            0 -1 46 1.0000424459576607e-02</internalNodes>
          <leafValues>
            -1.1051930487155914e-01 5.6890457868576050e-01</leafValues></_>
        <_>
          <internalNodes>
            0 -1 64 -1.6619797796010971e-02</internalNodes>
          <leafValues>
            5.0197118520736694e-01 -2.8709191083908081e-01</leafValues></_>
        <_>
          <internalNodes>
            0 -1 128 -1.7714943736791611e-02</internalNodes>
          <leafValues>
            3.2576045393943787e-01 -3.6239197850227356e-01</leafValues></_>
        <_>
          <internalNodes>
            0 -1 119 5.5733730550855398e-04</internalNodes>
          <leafValues>
            -5.8601516485214233e-01 2.0367985963821411e-01</leafValues></_>
        <_>
          <internalNodes>
            0 -1 52 2.4429664015769958e-02</internalNodes>
          <leafValues>
            -2.4248029291629791e-01 6.3765090703964233e-01</leafValues></_>
        <_>
          <internalNodes>
            0 -1 103 -1.6711198259145021e-03</internalNodes>
          <leafValues>
            -6.6674965620040894e-01 2.5905916094779968e-01</leafValues></_>
        <_>
          <internalNodes>
            0 -1 95 1.1997810564935207e-02</internalNodes>
          <leafValues>
            1.5206569433212280e-01 -7.4730789661407471e-01</leafValues></_>
        <_>
          <internalNodes>
            0 -1 133 1.6485989093780518e-02</internalNodes>
          <leafValues>
            -1.9376973807811737e-01 6.7858278751373291e-01</leafValues></_>
        <_>
          <internalNodes>
            0 -1 94 -7.1284240111708641e-03</internalNodes>
          <leafValues>
            6.0057038068771362e-01 -1.7958703637123108e-01</leafValues></_>
        <_>
          <internalNodes>
            0 -1 113 2.5369415525346994e-03</internalNodes>
          <leafValues>
            -2.0522238314151764e-01 5.2856451272964478e-01</leafValues></_>
        <_>
          <internalNodes>
            0 -1 23 -2.5342762470245361e-02</internalNodes>
          <leafValues>
            -8.1848257780075073e-01 1.2544135749340057e-01</leafValues></_>
        <_>
          <internalNodes>
            0 -1 105 -2.6622444856911898e-03</internalNodes>
          <leafValues>
            -5.9308564662933350e-01 1.4096310734748840e-01</leafValues></_>
        <_>
          <internalNodes>
            0 -1 69 -1.3369232416152954e-02</internalNodes>
          <leafValues>
            -7.6434260606765747e-01 1.4178925752639771e-01</leafValues></_>
        <_>
          <internalNodes>
            0 -1 78 1.5022780746221542e-02</internalNodes>
          <leafValues>
            -4.1705206036567688e-01 2.6421633362770081e-01</leafValues></_>
        <_>
          <internalNodes>
            0 -1 87 -2.7059495914727449e-03</internalNodes>
          <leafValues>
            2.4680376052856445e-01 -5.3473883867263794e-01</leafValues></_>
        <_>
          <internalNodes>
            0 -1 37 -8.0247625708580017e-02</internalNodes>
          <leafValues>
            -7.3495244979858398e-01 1.3893257081508636e-01</leafValues></_></weakClassifiers></_>
    <!-- stage 11 -->
    <_>
      <maxWeakCount>16</maxWeakCount>
      <stageThreshold>-1.0672881603240967e+00</stageThreshold>
      <weakClassifiers>
        <_>
          <internalNodes>
            0 -1 65 1.8735852092504501e-02</internalNodes>
          <leafValues>
            3.7535014748573303e-01 -7.9069769382476807e-01</leafValues></_>
        <_>
          <internalNodes>
            0 -1 57 2.9317897278815508e-03</internalNodes>
          <leafValues>
            -4.0411961078643799e-01 3.3401960134506226e-01</leafValues></_>
        <_>
          <internalNodes>
            0 -1 24 4.6698432415723801e-03</internalNodes>
          <leafValues>
            -1.8122266232967377e-01 7.3890417814254761e-01</leafValues></_>
        <_>
          <internalNodes>
            0 -1 19 -2.4327753635589033e-05</internalNodes>
          <leafValues>
            2.7324193716049194e-01 -4.0248829126358032e-01</leafValues></_>
        <_>
          <internalNodes>
            0 -1 117 2.9586895834654570e-05</internalNodes>
          <leafValues>
            -4.6305510401725769e-01 2.6916831731796265e-01</leafValues></_>
        <_>
          <internalNodes>
            0 -1 84 -9.8933174740523100e-04</internalNodes>
          <leafValues>
            -5.1664358377456665e-01 2.1594591438770294e-01</leafValues></_>
        <_>
          <internalNodes>
            0 -1 53 5.0486184656620026e-02</internalNodes>
          <leafValues>
            -1.9537773728370667e-01 6.2151634693145752e-01</leafValues></_>
        <_>
          <internalNodes>
            0 -1 80 -3.4826862247427925e-05</internalNodes>
          <leafValues>
            2.3052971065044403e-01 -5.8586430549621582e-01</leafValues></_>
        <_>
          <internalNodes>
            0 -1 39 -4.1150555014610291e-02</internalNodes>
          <leafValues>
            -6.1533415317535400e-01 1.7015667259693146e-01</leafValues></_>
        <_>
          <internalNodes>
            0 -1 109 6.9295074790716171e-03</internalNodes>
          <leafValues>
            -4.2383104562759399e-01 2.6661303639411926e-01</leafValues></_>
        <_>
          <internalNodes>
            0 -1 120 6.7826616577804089e-04</internalNodes>
          <leafValues>
            2.1396134793758392e-01 -4.5499598979949951e-01</leafValues></_>
        <_>
          <internalNodes>
            0 -1 31 -4.2677558958530426e-03</internalNodes>
          <leafValues>
            -7.3625916242599487e-01 1.5742056071758270e-01</leafValues></_>
        <_>
          <internalNodes>
            0 -1 36 -2.9115551151335239e-03</internalNodes>
          <leafValues>
            2.2271463274955750e-01 -4.4067996740341187e-01</leafValues></_>
        <_>
          <internalNodes>
            0 -1 73 3.2668517087586224e-04</internalNodes>
          <leafValues>
            2.2093927860260010e-01 -5.1412457227706909e-01</leafValues></_>
        <_>
          <internalNodes>
            0 -1 93 -3.5558589734137058e-03</internalNodes>
          <leafValues>
            6.0528302192687988e-01 -1.9079224765300751e-01</leafValues></_>
        <_>
          <internalNodes>
            0 -1 118 1.7114062793552876e-03</internalNodes>
          <leafValues>
            1.7582546174526215e-01 -6.9555187225341797e-01</leafValues></_></weakClassifiers></_></stages>
  <features>
    <_>
      <rects>
        <_>
          0 0 2 10 -1.</_>
        <_>
          0 5 2 5 2.</_></rects>
      <tilted>0</tilted></_>
    <_>
      <rects>
        <_>
          0 0 6 16 -1.</_>
        <_>
          3 0 3 16 2.</_></rects>
      <tilted>0</tilted></_>
    <_>
      <rects>
        <_>
          0 0 8 2 -1.</_>
        <_>
          4 0 4 2 2.</_></rects>
      <tilted>0</tilted></_>
    <_>
      <rects>
        <_>
          0 0 15 1 -1.</_>
        <_>
          5 0 5 1 3.</_></rects>
      <tilted>0</tilted></_>
    <_>
      <rects>
        <_>
          0 0 12 22 -1.</_>
        <_>
          0 11 12 11 2.</_></rects>
      <tilted>0</tilted></_>
    <_>
      <rects>
        <_>
          0 0 14 2 -1.</_>
        <_>
          0 1 14 1 2.</_></rects>
      <tilted>0</tilted></_>
    <_>
      <rects>
        <_>
          0 0 15 2 -1.</_>
        <_>
          0 1 15 1 2.</_></rects>
      <tilted>0</tilted></_>
    <_>
      <rects>
        <_>
          0 2 4 17 -1.</_>
        <_>
          2 2 2 17 2.</_></rects>
      <tilted>0</tilted></_>
    <_>
      <rects>
        <_>
          0 2 10 15 -1.</_>
        <_>
          0 7 10 5 3.</_></rects>
      <tilted>0</tilted></_>
    <_>
      <rects>
        <_>
          0 3 8 6 -1.</_>
        <_>
          4 3 4 6 2.</_></rects>
      <tilted>0</tilted></_>
    <_>
      <rects>
        <_>
          0 3 15 3 -1.</_>
        <_>
          5 3 5 3 3.</_></rects>
      <tilted>0</tilted></_>
    <_>
      <rects>
        <_>
          0 4 2 10 -1.</_>
        <_>
          0 4 1 5 2.</_>
        <_>
          1 9 1 5 2.</_></rects>
      <tilted>0</tilted></_>
    <_>
      <rects>
        <_>
          0 4 15 15 -1.</_>
        <_>
          0 9 15 5 3.</_></rects>
      <tilted>0</tilted></_>
    <_>
      <rects>
        <_>
          0 6 4 12 -1.</_>
        <_>
          2 6 2 12 2.</_></rects>
      <tilted>0</tilted></_>
    <_>
      <rects>
        <_>
          0 6 15 12 -1.</_>
        <_>
          5 6 5 12 3.</_></rects>
      <tilted>0</tilted></_>
    <_>
      <rects>
        <_>
          0 7 6 6 -1.</_>
        <_>
          3 7 3 6 2.</_></rects>
      <tilted>0</tilted></_>
    <_>
      <rects>
        <_>
          0 7 11 6 -1.</_>
        <_>
          0 9 11 2 3.</_></rects>
      <tilted>0</tilted></_>
    <_>
      <rects>
        <_>
          0 8 1 2 -1.</_>
        <_>
          0 9 1 1 2.</_></rects>
      <tilted>0</tilted></_>
    <_>
      <rects>
        <_>
          0 8 6 8 -1.</_>
        <_>
          2 8 2 8 3.</_></rects>
      <tilted>0</tilted></_>
    <_>
      <rects>
        <_>
          0 9 1 3 -1.</_>
        <_>
          0 10 1 1 3.</_></rects>
      <tilted>0</tilted></_>
    <_>
      <rects>
        <_>
          0 9 3 6 -1.</_>
        <_>
          1 9 1 6 3.</_></rects>
      <tilted>0</tilted></_>
    <_>
      <rects>
        <_>
          0 10 6 3 -1.</_>
        <_>
          2 10 2 3 3.</_></rects>
      <tilted>0</tilted></_>
    <_>
      <rects>
        <_>
          0 11 14 4 -1.</_>
        <_>
          0 13 14 2 2.</_></rects>
      <tilted>0</tilted></_>
    <_>
      <rects>
        <_>
          0 12 6 6 -1.</_>
        <_>
          0 14 6 2 3.</_></rects>
      <tilted>0</tilted></_>
    <_>
      <rects>
        <_>
          0 13 3 1 -1.</_>
        <_>
          1 13 1 1 3.</_></rects>
      <tilted>0</tilted></_>
    <_>
      <rects>
        <_>
          0 13 6 5 -1.</_>
        <_>
          3 13 3 5 2.</_></rects>
      <tilted>0</tilted></_>
    <_>
      <rects>
        <_>
          0 18 15 2 -1.</_>
        <_>
          5 18 5 2 3.</_></rects>
      <tilted>0</tilted></_>
    <_>
      <rects>
        <_>
          0 18 10 4 -1.</_>
        <_>
          0 18 5 2 2.</_>
        <_>
          5 20 5 2 2.</_></rects>
      <tilted>0</tilted></_>
    <_>
      <rects>
        <_>
          1 0 1 4 -1.</_>
        <_>
          1 2 1 2 2.</_></rects>
      <tilted>0</tilted></_>
    <_>
      <rects>
        <_>
          1 0 1 6 -1.</_>
        <_>
          1 3 1 3 2.</_></rects>
      <tilted>0</tilted></_>
    <_>
      <rects>
        <_>
          1 0 1 12 -1.</_>
        <_>
          1 6 1 6 2.</_></rects>
      <tilted>0</tilted></_>
    <_>
      <rects>
        <_>
          1 0 2 6 -1.</_>
        <_>
          1 3 2 3 2.</_></rects>
      <tilted>0</tilted></_>
    <_>
      <rects>
        <_>
          1 0 2 10 -1.</_>
        <_>
          1 5 2 5 2.</_></rects>
      <tilted>0</tilted></_>
    <_>
      <rects>
        <_>
          1 0 4 14 -1.</_>
        <_>
          3 0 2 14 2.</_></rects>
      <tilted>0</tilted></_>
    <_>
      <rects>
        <_>
          1 0 11 3 -1.</_>
        <_>
          1 1 11 1 3.</_></rects>
      <tilted>0</tilted></_>
    <_>
      <rects>
        <_>
          1 0 11 20 -1.</_>
        <_>
          1 10 11 10 2.</_></rects>
      <tilted>0</tilted></_>
    <_>
      <rects>
        <_>
          1 2 11 6 -1.</_>
        <_>
          1 4 11 2 3.</_></rects>
      <tilted>0</tilted></_>
    <_>
      <rects>
        <_>
          1 4 8 15 -1.</_>
        <_>
          1 9 8 5 3.</_></rects>
      <tilted>0</tilted></_>
    <_>
      <rects>
        <_>
          1 4 13 9 -1.</_>
        <_>
          1 7 13 3 3.</_></rects>
      <tilted>0</tilted></_>
    <_>
      <rects>
        <_>
          1 4 14 12 -1.</_>
        <_>
          1 8 14 4 3.</_></rects>
      <tilted>0</tilted></_>
    <_>
      <rects>
        <_>
          1 8 12 10 -1.</_>
        <_>
          1 13 12 5 2.</_></rects>
      <tilted>0</tilted></_>
    <_>
      <rects>
        <_>
          1 9 1 3 -1.</_>
        <_>
          1 10 1 1 3.</_></rects>
      <tilted>0</tilted></_>
    <_>
      <rects>
        <_>
          1 10 14 2 -1.</_>
        <_>
          8 10 7 2 2.</_></rects>
      <tilted>0</tilted></_>
    <_>
      <rects>
        <_>
          1 14 6 8 -1.</_>
        <_>
          1 18 6 4 2.</_></rects>
      <tilted>0</tilted></_>
    <_>
      <rects>
        <_>
          1 15 2 6 -1.</_>
        <_>
          1 15 1 3 2.</_>
        <_>
          2 18 1 3 2.</_></rects>
      <tilted>0</tilted></_>
    <_>
      <rects>
        <_>
          2 0 6 4 -1.</_>
        <_>
          2 0 3 2 2.</_>
        <_>
          5 2 3 2 2.</_></rects>
      <tilted>0</tilted></_>
    <_>
      <rects>
        <_>
          2 0 10 2 -1.</_>
        <_>
          2 1 10 1 2.</_></rects>
      <tilted>0</tilted></_>
    <_>
      <rects>
        <_>
          2 3 11 16 -1.</_>
        <_>
          2 11 11 8 2.</_></rects>
      <tilted>0</tilted></_>
    <_>
      <rects>
        <_>
          2 6 7 9 -1.</_>
        <_>
          2 9 7 3 3.</_></rects>
      <tilted>0</tilted></_>
    <_>
      <rects>
        <_>
          2 7 6 8 -1.</_>
        <_>
          4 7 2 8 3.</_></rects>
      <tilted>0</tilted></_>
    <_>
      <rects>
        <_>
          2 7 12 9 -1.</_>
        <_>
          6 7 4 9 3.</_></rects>
      <tilted>0</tilted></_>
    <_>
      <rects>
        <_>
          2 7 9 6 -1.</_>
        <_>
          2 9 9 2 3.</_></rects>
      <tilted>0</tilted></_>
    <_>
      <rects>
        <_>
          2 8 4 5 -1.</_>
        <_>
          4 8 2 5 2.</_></rects>
      <tilted>0</tilted></_>
    <_>
      <rects>
        <_>
          2 8 6 5 -1.</_>
        <_>
          4 8 2 5 3.</_></rects>
      <tilted>0</tilted></_>
    <_>
      <rects>
        <_>
          2 9 8 6 -1.</_>
        <_>
          2 11 8 2 3.</_></rects>
      <tilted>0</tilted></_>
    <_>
      <rects>
        <_>
          2 10 12 6 -1.</_>
        <_>
          6 10 4 6 3.</_></rects>
      <tilted>0</tilted></_>
    <_>
      <rects>
        <_>
          2 10 12 9 -1.</_>
        <_>
          6 10 4 9 3.</_></rects>
      <tilted>0</tilted></_>
    <_>
      <rects>
        <_>
          3 0 8 2 -1.</_>
        <_>
          3 1 8 1 2.</_></rects>
      <tilted>0</tilted></_>
    <_>
      <rects>
        <_>
          3 0 8 3 -1.</_>
        <_>
          3 1 8 1 3.</_></rects>
      <tilted>0</tilted></_>
    <_>
      <rects>
        <_>
          3 0 10 3 -1.</_>
        <_>
          3 1 10 1 3.</_></rects>
      <tilted>0</tilted></_>
    <_>
      <rects>
        <_>
          3 7 4 5 -1.</_>
        <_>
          5 7 2 5 2.</_></rects>
      <tilted>0</tilted></_>
    <_>
      <rects>
        <_>
          3 7 9 9 -1.</_>
        <_>
          6 7 3 9 3.</_></rects>
      <tilted>0</tilted></_>
    <_>
      <rects>
        <_>
          3 7 10 8 -1.</_>
        <_>
          3 11 10 4 2.</_></rects>
      <tilted>0</tilted></_>
    <_>
      <rects>
        <_>
          3 8 9 6 -1.</_>
        <_>
          6 8 3 6 3.</_></rects>
      <tilted>0</tilted></_>
    <_>
      <rects>
        <_>
          3 9 6 4 -1.</_>
        <_>
          5 9 2 4 3.</_></rects>
      <tilted>0</tilted></_>
    <_>
      <rects>
        <_>
          3 12 10 6 -1.</_>
        <_>
          3 14 10 2 3.</_></rects>
      <tilted>0</tilted></_>
    <_>
      <rects>
        <_>
          4 1 8 20 -1.</_>
        <_>
          8 1 4 20 2.</_></rects>
      <tilted>0</tilted></_>
    <_>
      <rects>
        <_>
          4 2 2 3 -1.</_>
        <_>
          5 2 1 3 2.</_></rects>
      <tilted>0</tilted></_>
    <_>
      <rects>
        <_>
          4 4 6 9 -1.</_>
        <_>
          4 7 6 3 3.</_></rects>
      <tilted>0</tilted></_>
    <_>
      <rects>
        <_>
          4 5 7 6 -1.</_>
        <_>
          4 7 7 2 3.</_></rects>
      <tilted>0</tilted></_>
    <_>
      <rects>
        <_>
          4 6 6 10 -1.</_>
        <_>
          7 6 3 10 2.</_></rects>
      <tilted>0</tilted></_>
    <_>
      <rects>
        <_>
          4 9 5 6 -1.</_>
        <_>
          4 11 5 2 3.</_></rects>
      <tilted>0</tilted></_>
    <_>
      <rects>
        <_>
          4 10 6 3 -1.</_>
        <_>
          7 10 3 3 2.</_></rects>
      <tilted>0</tilted></_>
    <_>
      <rects>
        <_>
          5 1 2 1 -1.</_>
        <_>
          6 1 1 1 2.</_></rects>
      <tilted>0</tilted></_>
    <_>
      <rects>
        <_>
          5 1 5 6 -1.</_>
        <_>
          5 3 5 2 3.</_></rects>
      <tilted>0</tilted></_>
    <_>
      <rects>
        <_>
          5 2 6 9 -1.</_>
        <_>
          5 5 6 3 3.</_></rects>
      <tilted>0</tilted></_>
    <_>
      <rects>
        <_>
          5 4 9 4 -1.</_>
        <_>
          5 6 9 2 2.</_></rects>
      <tilted>0</tilted></_>
    <_>
      <rects>
        <_>
          5 7 6 2 -1.</_>
        <_>
          7 7 2 2 3.</_></rects>
      <tilted>0</tilted></_>
    <_>
      <rects>
        <_>
          5 13 4 9 -1.</_>
        <_>
          5 16 4 3 3.</_></rects>
      <tilted>0</tilted></_>
    <_>
      <rects>
        <_>
          5 15 5 6 -1.</_>
        <_>
          5 17 5 2 3.</_></rects>
      <tilted>0</tilted></_>
    <_>
      <rects>
        <_>
          6 1 3 16 -1.</_>
        <_>
          6 9 3 8 2.</_></rects>
      <tilted>0</tilted></_>
    <_>
      <rects>
        <_>
          6 2 3 14 -1.</_>
        <_>
          6 9 3 7 2.</_></rects>
      <tilted>0</tilted></_>
    <_>
      <rects>
        <_>
          6 3 6 1 -1.</_>
        <_>
          8 3 2 1 3.</_></rects>
      <tilted>0</tilted></_>
    <_>
      <rects>
        <_>
          6 5 3 6 -1.</_>
        <_>
          6 7 3 2 3.</_></rects>
      <tilted>0</tilted></_>
    <_>
      <rects>
        <_>
          6 9 3 3 -1.</_>
        <_>
          7 9 1 3 3.</_></rects>
      <tilted>0</tilted></_>
    <_>
      <rects>
        <_>
          6 9 4 5 -1.</_>
        <_>
          8 9 2 5 2.</_></rects>
      <tilted>0</tilted></_>
    <_>
      <rects>
        <_>
          6 9 6 6 -1.</_>
        <_>
          6 11 6 2 3.</_></rects>
      <tilted>0</tilted></_>
    <_>
      <rects>
        <_>
          6 10 6 6 -1.</_>
        <_>
          8 10 2 6 3.</_></rects>
      <tilted>0</tilted></_>
    <_>
      <rects>
        <_>
          6 10 6 2 -1.</_>
        <_>
          9 10 3 2 2.</_></rects>
      <tilted>0</tilted></_>
    <_>
      <rects>
        <_>
          6 11 2 2 -1.</_>
        <_>
          7 11 1 2 2.</_></rects>
      <tilted>0</tilted></_>
    <_>
      <rects>
        <_>
          6 13 4 9 -1.</_>
        <_>
          6 16 4 3 3.</_></rects>
      <tilted>0</tilted></_>
    <_>
      <rects>
        <_>
          6 17 4 3 -1.</_>
        <_>
          6 18 4 1 3.</_></rects>
      <tilted>0</tilted></_>
    <_>
      <rects>
        <_>
          6 18 1 3 -1.</_>
        <_>
          6 19 1 1 3.</_></rects>
      <tilted>0</tilted></_>
    <_>
      <rects>
        <_>
          6 19 1 3 -1.</_>
        <_>
          6 20 1 1 3.</_></rects>
      <tilted>0</tilted></_>
    <_>
      <rects>
        <_>
          6 19 3 3 -1.</_>
        <_>
          6 20 3 1 3.</_></rects>
      <tilted>0</tilted></_>
    <_>
      <rects>
        <_>
          7 0 2 20 -1.</_>
        <_>
          7 10 2 10 2.</_></rects>
      <tilted>0</tilted></_>
    <_>
      <rects>
        <_>
          7 0 6 4 -1.</_>
        <_>
          7 0 3 2 2.</_>
        <_>
          10 2 3 2 2.</_></rects>
      <tilted>0</tilted></_>
    <_>
      <rects>
        <_>
          7 1 1 4 -1.</_>
        <_>
          7 3 1 2 2.</_></rects>
      <tilted>0</tilted></_>
    <_>
      <rects>
        <_>
          7 1 2 12 -1.</_>
        <_>
          7 5 2 4 3.</_></rects>
      <tilted>0</tilted></_>
    <_>
      <rects>
        <_>
          7 1 3 14 -1.</_>
        <_>
          7 8 3 7 2.</_></rects>
      <tilted>0</tilted></_>
    <_>
      <rects>
        <_>
          7 1 3 16 -1.</_>
        <_>
          7 9 3 8 2.</_></rects>
      <tilted>0</tilted></_>
    <_>
      <rects>
        <_>
          7 4 3 6 -1.</_>
        <_>
          7 6 3 2 3.</_></rects>
      <tilted>0</tilted></_>
    <_>
      <rects>
        <_>
          7 5 2 14 -1.</_>
        <_>
          7 12 2 7 2.</_></rects>
      <tilted>0</tilted></_>
    <_>
      <rects>
        <_>
          7 7 2 6 -1.</_>
        <_>
          8 7 1 6 2.</_></rects>
      <tilted>0</tilted></_>
    <_>
      <rects>
        <_>
          7 7 2 6 -1.</_>
        <_>
          7 10 2 3 2.</_></rects>
      <tilted>0</tilted></_>
    <_>
      <rects>
        <_>
          7 7 2 8 -1.</_>
        <_>
          7 11 2 4 2.</_></rects>
      <tilted>0</tilted></_>
    <_>
      <rects>
        <_>
          7 9 2 3 -1.</_>
        <_>
          8 9 1 3 2.</_></rects>
      <tilted>0</tilted></_>
    <_>
      <rects>
        <_>
          7 9 2 10 -1.</_>
        <_>
          7 14 2 5 2.</_></rects>
      <tilted>0</tilted></_>
    <_>
      <rects>
        <_>
          7 10 3 6 -1.</_>
        <_>
          7 12 3 2 3.</_></rects>
      <tilted>0</tilted></_>
    <_>
      <rects>
        <_>
          7 10 8 12 -1.</_>
        <_>
          7 14 8 4 3.</_></rects>
      <tilted>0</tilted></_>
    <_>
      <rects>
        <_>
          7 12 3 4 -1.</_>
        <_>
          7 14 3 2 2.</_></rects>
      <tilted>0</tilted></_>
    <_>
      <rects>
        <_>
          7 15 1 4 -1.</_>
        <_>
          7 17 1 2 2.</_></rects>
      <tilted>0</tilted></_>
    <_>
      <rects>
        <_>
          7 19 2 3 -1.</_>
        <_>
          7 20 2 1 3.</_></rects>
      <tilted>0</tilted></_>
    <_>
      <rects>
        <_>
          7 19 3 3 -1.</_>
        <_>
          7 20 3 1 3.</_></rects>
      <tilted>0</tilted></_>
    <_>
      <rects>
        <_>
          8 0 6 4 -1.</_>
        <_>
          8 0 3 2 2.</_>
        <_>
          11 2 3 2 2.</_></rects>
      <tilted>0</tilted></_>
    <_>
      <rects>
        <_>
          8 1 2 6 -1.</_>
        <_>
          8 4 2 3 2.</_></rects>
      <tilted>0</tilted></_>
    <_>
      <rects>
        <_>
          8 2 3 8 -1.</_>
        <_>
          8 6 3 4 2.</_></rects>
      <tilted>0</tilted></_>
    <_>
      <rects>
        <_>
          8 4 1 16 -1.</_>
        <_>
          8 12 1 8 2.</_></rects>
      <tilted>0</tilted></_>
    <_>
      <rects>
        <_>
          8 6 1 8 -1.</_>
        <_>
          8 10 1 4 2.</_></rects>
      <tilted>0</tilted></_>
    <_>
      <rects>
        <_>
          8 8 1 12 -1.</_>
        <_>
          8 14 1 6 2.</_></rects>
      <tilted>0</tilted></_>
    <_>
      <rects>
        <_>
          8 11 2 2 -1.</_>
        <_>
          9 11 1 2 2.</_></rects>
      <tilted>0</tilted></_>
    <_>
      <rects>
        <_>
          9 5 6 8 -1.</_>
        <_>
          11 5 2 8 3.</_></rects>
      <tilted>0</tilted></_>
    <_>
      <rects>
        <_>
          9 7 6 6 -1.</_>
        <_>
          11 7 2 6 3.</_></rects>
      <tilted>0</tilted></_>
    <_>
      <rects>
        <_>
          9 7 6 14 -1.</_>
        <_>
          12 7 3 14 2.</_></rects>
      <tilted>0</tilted></_>
    <_>
      <rects>
        <_>
          9 17 1 4 -1.</_>
        <_>
          9 19 1 2 2.</_></rects>
      <tilted>0</tilted></_>
    <_>
      <rects>
        <_>
          10 6 4 4 -1.</_>
        <_>
          12 6 2 4 2.</_></rects>
      <tilted>0</tilted></_>
    <_>
      <rects>
        <_>
          10 8 4 5 -1.</_>
        <_>
          12 8 2 5 2.</_></rects>
      <tilted>0</tilted></_>
    <_>
      <rects>
        <_>
          10 10 3 1 -1.</_>
        <_>
          11 10 1 1 3.</_></rects>
      <tilted>0</tilted></_>
    <_>
      <rects>
        <_>
          10 10 4 12 -1.</_>
        <_>
          10 16 4 6 2.</_></rects>
      <tilted>0</tilted></_>
    <_>
      <rects>
        <_>
          10 14 5 8 -1.</_>
        <_>
          10 18 5 4 2.</_></rects>
      <tilted>0</tilted></_>
    <_>
      <rects>
        <_>
          11 7 3 1 -1.</_>
        <_>
          12 7 1 1 3.</_></rects>
      <tilted>0</tilted></_>
    <_>
      <rects>
        <_>
          12 7 3 1 -1.</_>
        <_>
          13 7 1 1 3.</_></rects>
      <tilted>0</tilted></_>
    <_>
      <rects>
        <_>
          12 21 3 1 -1.</_>
        <_>
          13 21 1 1 3.</_></rects>
      <tilted>0</tilted></_>
    <_>
      <rects>
        <_>
          13 3 2 14 -1.</_>
        <_>
          13 3 1 7 2.</_>
        <_>
          14 10 1 7 2.</_></rects>
      <tilted>0</tilted></_>
    <_>
      <rects>
        <_>
          13 7 2 10 -1.</_>
        <_>
          13 7 1 5 2.</_>
        <_>
          14 12 1 5 2.</_></rects>
      <tilted>0</tilted></_></features></cascade>
</opencv_storage>
